/*
 * Copyright (c) 2026 EdgeImpulse Inc.
 *
 * Generated by Edge Impulse and licensed under the applicable Edge Impulse
 * Terms of Service. Community and Professional Terms of Service
 * (https://edgeimpulse.com/legal/terms-of-service) or Enterprise Terms of
 * Service (https://edgeimpulse.com/legal/enterprise-terms-of-service),
 * according to your product plan subscription (the “License”).
 *
 * This software, documentation and other associated files (collectively referred
 * to as the “Software”) is a single SDK variation generated by the Edge Impulse
 * platform and requires an active paid Edge Impulse subscription to use this
 * Software for any purpose.
 *
 * You may NOT use this Software unless you have an active Edge Impulse subscription
 * that meets the eligibility requirements for the applicable License, subject to
 * your full and continued compliance with the terms and conditions of the License,
 * including without limitation any usage restrictions under the applicable License.
 *
 * If you do not have an active Edge Impulse product plan subscription, or if use
 * of this Software exceeds the usage limitations of your Edge Impulse product plan
 * subscription, you are not permitted to use this Software and must immediately
 * delete and erase all copies of this Software within your control or possession.
 * Edge Impulse reserves all rights and remedies available to enforce its rights.
 *
 * Unless required by applicable law or agreed to in writing, the Software is
 * distributed on an "AS IS" BASIS, WITHOUT WARRANTIES OR CONDITIONS OF ANY KIND,
 * either express or implied. See the License for the specific language governing
 * permissions, disclaimers and limitations under the License.
 */
// Generated on: 16.03.2026 15:02:53

#include <stdio.h>
#include <stdlib.h>
#include "edge-impulse-sdk/tensorflow/lite/c/builtin_op_data.h"
#include "edge-impulse-sdk/tensorflow/lite/c/common.h"
#include "edge-impulse-sdk/tensorflow/lite/micro/micro_mutable_op_resolver.h"
#include "edge-impulse-sdk/porting/ei_classifier_porting.h"

#if EI_CLASSIFIER_PRINT_STATE
#if defined(__cplusplus) && EI_C_LINKAGE == 1
extern "C" {
    extern void ei_printf(const char *format, ...);
}
#else
extern void ei_printf(const char *format, ...);
#endif
#endif

#define STRINGIZE(x) #x
#define STRINGIZE_VALUE_OF(x) STRINGIZE(x)

#if defined (__GNUC__)  /* GNU compiler */
#define ALIGN(X) __attribute__((aligned(X)))
#define DEFINE_SECTION(x) __attribute__((section(x)))
#elif defined (_MSC_VER)
#define ALIGN(X) __declspec(align(X))
#elif defined (__TASKING__) /* TASKING Compiler */
#define ALIGN(X) __align(X)
#define DEFINE_SECTION(x) __attribute__((section(x)))
#elif defined (__ARMCC_VERSION) /* Arm Compiler */
#define ALIGN(X) __ALIGNED(x)
#define DEFINE_SECTION(x) __attribute__((section(x)))
#elif defined (__ICCARM__) /* IAR Compiler */
#define ALIGN(x) __attribute__((aligned(x)))
#define DEFINE_SECTION(x) __attribute__((section(x)))
#elif defined (__clang__) /* LLVM/Clang Compiler */
#define ALIGN(X) __ALIGNED(x)
#define DEFINE_SECTION(x) __attribute__((section(x)))
#endif

#if defined(EI_MODEL_SECTION) && (defined(__GNUC__) || defined(__clang__))
#define MODEL_SECTION(X) __attribute__((section(STRINGIZE_VALUE_OF(X))))
#else
#define MODEL_SECTION(X)
#endif

#ifndef EI_MAX_SCRATCH_BUFFER_COUNT
#ifndef CONFIG_IDF_TARGET_ESP32S3
#define EI_MAX_SCRATCH_BUFFER_COUNT 4
#else
#define EI_MAX_SCRATCH_BUFFER_COUNT 8
#endif // CONFIG_IDF_TARGET_ESP32S3
#endif // EI_MAX_SCRATCH_BUFFER_COUNT

#ifndef EI_MAX_OVERFLOW_BUFFER_COUNT
#define EI_MAX_OVERFLOW_BUFFER_COUNT 10
#endif // EI_MAX_OVERFLOW_BUFFER_COUNT

using namespace tflite;
using namespace tflite::ops;
using namespace tflite::ops::micro;

namespace {

#if defined(EI_CLASSIFIER_ALLOCATION_STATIC_HIMAX) || defined(EI_CLASSIFIER_ALLOCATION_STATIC_HIMAX_GNU)
constexpr int kTensorArenaSize = 3600;
#else
constexpr int kTensorArenaSize = 2576;
#endif

#if defined(EI_CLASSIFIER_ALLOCATION_STATIC)
#if defined (EI_TENSOR_ARENA_LOCATION)
uint8_t tensor_arena[kTensorArenaSize] ALIGN(16) DEFINE_SECTION(STRINGIZE_VALUE_OF(EI_TENSOR_ARENA_LOCATION));
#else
uint8_t tensor_arena[kTensorArenaSize] ALIGN(16);
#endif
#elif defined(EI_CLASSIFIER_ALLOCATION_STATIC_HIMAX)
#pragma Bss(".tensor_arena")
uint8_t tensor_arena[kTensorArenaSize] ALIGN(16);
#pragma Bss()
#elif defined(EI_CLASSIFIER_ALLOCATION_STATIC_HIMAX_GNU)
uint8_t tensor_arena[kTensorArenaSize] ALIGN(16) __attribute__((section(".tensor_arena")));
#else
#define EI_CLASSIFIER_ALLOCATION_HEAP 1
uint8_t* tensor_arena = NULL;
#endif

static uint8_t* tensor_boundary;
static uint8_t* current_location;

template <int SZ, class T> struct TfArray {
  int sz; T elem[SZ];
};

enum used_operators_e {
  OP_RESHAPE, OP_CONV_2D, OP_MAX_POOL_2D, OP_FULLY_CONNECTED, OP_SOFTMAX,  OP_LAST
};

struct TensorInfo_t { // subset of TfLiteTensor used for initialization from constant memory
  TfLiteAllocationType allocation_type;
  TfLiteType type;
  void* data;
  TfLiteIntArray* dims;
  size_t bytes;
  TfLiteQuantization quantization;
};

typedef struct {
  TfLiteTensor tensor;
  int16_t index;
} TfLiteTensorWithIndex;

typedef struct {
  TfLiteEvalTensor tensor;
  int16_t index;
} TfLiteEvalTensorWithIndex;

TfLiteContext ctx{};
static const int MAX_TFL_TENSOR_COUNT = 4;
static TfLiteTensorWithIndex tflTensors[MAX_TFL_TENSOR_COUNT];
static const int MAX_TFL_EVAL_COUNT = 4;
static TfLiteEvalTensorWithIndex tflEvalTensors[MAX_TFL_EVAL_COUNT];
TfLiteRegistration registrations[OP_LAST];

namespace g0 {
const TfArray<2, int> tensor_dimension0 = { 2, { 1,150 } };
const TfArray<1, float> quant0_scale = { 1, { 0.046609383076429367, } };
const TfArray<1, int> quant0_zero = { 1, { 19 } };
const TfLiteAffineQuantization quant0 = { (TfLiteFloatArray*)&quant0_scale, (TfLiteIntArray*)&quant0_zero, 0 };
const MODEL_SECTION(EI_MODEL_SECTION) ALIGN(16) int32_t tensor_data1[4] = { 1, 1, 50, 3, };
const TfArray<1, int> tensor_dimension1 = { 1, { 4 } };
const MODEL_SECTION(EI_MODEL_SECTION) ALIGN(16) int32_t tensor_data2[4] = { 1, 50, 1, 16, };
const MODEL_SECTION(EI_MODEL_SECTION) ALIGN(16) int32_t tensor_data3[4] = { 1, 1, 25, 16, };
const MODEL_SECTION(EI_MODEL_SECTION) ALIGN(16) int32_t tensor_data4[4] = { 1, 25, 1, 16, };
const MODEL_SECTION(EI_MODEL_SECTION) ALIGN(8) int32_t tensor_data5[2] = { -1, 208, };
const TfArray<1, int> tensor_dimension5 = { 1, { 2 } };
const MODEL_SECTION(EI_MODEL_SECTION) ALIGN(16) int32_t tensor_data6[6] = { -102, 329, -110, 68, 28, -336, };
const TfArray<1, int> tensor_dimension6 = { 1, { 6 } };
const TfArray<1, float> quant6_scale = { 1, { 0.00031765515450388193, } };
const TfArray<1, int> quant6_zero = { 1, { 0 } };
const TfLiteAffineQuantization quant6 = { (TfLiteFloatArray*)&quant6_scale, (TfLiteIntArray*)&quant6_zero, 0 };
const MODEL_SECTION(EI_MODEL_SECTION) ALIGN(16) int8_t tensor_data7[6*16] = { 
  -32, -52, 80, -127, 60, -87, 65, -7, -73, 96, -83, 68, -103, -17, 76, -93, 
  -38, -96, -38, -72, -68, 10, -2, -32, 68, -53, -11, 18, 90, 50, -13, -23, 
  -37, -90, -112, 61, 15, -61, -99, 88, 52, -82, 58, 36, -4, -108, 41, 55, 
  -122, -69, -44, -39, 61, 24, 59, -1, 35, -40, 67, 5, -112, 28, -63, 35, 
  -67, 87, 103, 12, 48, -5, 119, 69, -71, -107, -75, -78, 53, -77, -73, -60, 
  -127, 76, -64, 45, -89, 24, 5, 27, 78, -7, -111, 79, -67, 57, -10, 60, 
};
const TfArray<2, int> tensor_dimension7 = { 2, { 6,16 } };
const TfArray<1, float> quant7_scale = { 1, { 0.0052828891202807426, } };
const TfLiteAffineQuantization quant7 = { (TfLiteFloatArray*)&quant7_scale, (TfLiteIntArray*)&g0::quant6_zero, 0 };
const MODEL_SECTION(EI_MODEL_SECTION) ALIGN(16) int32_t tensor_data8[16] = { 960, 233, 438, 566, -24, 64, 383, 533, -55, -222, 317, -47, 845, -284, 69, -161, };
const TfArray<1, int> tensor_dimension8 = { 1, { 16 } };
const TfArray<1, float> quant8_scale = { 1, { 0.00010029227269114926, } };
const TfLiteAffineQuantization quant8 = { (TfLiteFloatArray*)&quant8_scale, (TfLiteIntArray*)&g0::quant6_zero, 0 };
const MODEL_SECTION(EI_MODEL_SECTION) ALIGN(16) int8_t tensor_data9[16*208] = { 
  65, 51, 101, 1, 19, 60, 65, -19, 11, 39, 40, 75, 58, 75, -49, 2, 53, -19, 21, -26, -34, 42, 51, 50, 59, 1, -43, 11, 40, 127, 64, -15, 18, -2, 89, 1, 85, -18, 53, 17, -36, -26, -54, 23, 83, 79, -23, 43, 37, -13, -7, -35, -9, 63, -41, 22, 23, -53, -15, 22, 84, 94, -22, -40, 16, 60, -16, 63, 82, 11, -28, 34, -23, -18, 28, 95, -9, 41, 88, -26, 83, 24, -17, 8, 4, 12, -80, 79, 92, 68, 48, -11, 22, -20, 38, 20, -41, 72, 53, 48, 14, -20, -60, -28, 22, -60, 30, -18, 3, -1, -20, -12, 39, -4, 51, -17, 94, 42, -33, 59, 16, -61, 7, 20, 24, -1, 85, -30, 4, -82, -66, 21, 67, -30, -57, -71, 66, -62, -41, 16, -83, -52, 4, 34, -44, 28, 27, 71, 79, -32, -31, -59, 13, 19, -91, 17, -29, -29, 88, 46, -50, 22, 36, -37, 17, -48, -117, -4, -14, -103, 11, -106, 32, -28, 90, 19, -55, -14, -48, 19, -15, 22, -15, 0, 30, -101, -36, -68, 70, -56, 55, 1, 50, -57, -78, -8, -36, 29, -64, -38, 52, -73, -79, -21, 32, 16, 91, -64, 
  25, -53, -28, 9, 25, -50, 61, 24, -8, -2, -56, -73, 8, -44, 13, -59, -59, -6, -33, 45, 9, -54, 90, -40, -74, -23, 6, -52, 16, 8, -9, 17, 28, 53, -14, 12, -23, 44, -1, 70, 61, -7, -45, -17, 30, 3, 31, 66, 53, 62, 44, 12, 19, -46, 50, -56, -14, 15, 30, -75, 19, -38, -46, 30, 0, 46, 2, 43, 13, -18, 62, 64, -6, -41, -19, -73, 7, -50, -49, 82, 2, -7, 15, -75, 1, 16, 51, 27, -30, -20, 14, -15, 92, -8, 9, -11, 20, 45, 45, -35, 20, -7, -11, 30, 52, 59, 21, -32, 4, 40, 36, 0, 5, -36, 29, 21, 55, -31, 26, -15, 53, 35, 25, -37, 61, -13, -51, -22, -77, 57, -29, -51, -55, 72, -26, -45, 18, -12, 86, -107, -18, -13, -42, 37, -23, 66, -89, -9, 31, -22, -16, -17, 14, 94, 73, -75, 8, -28, -67, -43, -57, 7, 2, -38, 14, 88, 26, -10, -58, 84, 25, -85, -31, -51, -49, -75, -4, 30, -102, -19, 50, -32, 20, 69, 58, 71, 86, -10, 64, 110, 28, -20, 31, 33, -54, -42, 38, -18, 59, 24, -70, 19, -14, -80, 14, -1, -16, -81, 
  -73, 42, 23, -4, 56, 60, -32, -71, -40, 4, 10, -53, 35, 27, 46, -63, 22, 22, -50, -33, 0, -59, -29, -72, 14, -10, 9, -48, 62, 31, 14, -16, 39, 43, -25, -69, 64, 11, 62, -42, -83, 4, -28, -7, 39, 31, -62, 49, -20, 34, 76, -9, 62, 3, 4, 28, -64, 27, -7, 30, 6, 10, -25, 51, 81, 49, 56, 1, -18, 46, 0, 17, -58, -38, -67, -57, -17, 62, 23, 88, 25, 64, 21, 16, -22, 15, -73, 49, 17, -11, 27, -41, 27, 25, 91, 63, 26, -7, -32, 58, 90, -64, 9, -38, 3, -21, 50, 38, 70, 51, -28, 28, 9, 39, -45, 81, 71, -58, 17, -2, -15, -49, -34, 22, 11, -58, -3, 26, -21, -81, -84, 59, -21, -10, -103, 37, -1, 66, -34, -90, -58, -111, 22, 28, 59, -13, -38, -9, -5, 23, -67, -74, 31, -38, 6, -112, -41, -44, 95, -22, 15, 31, -56, 13, 15, -37, 6, -23, 64, -48, 61, -22, 6, 0, 0, 47, 30, -18, -90, 29, -57, 25, -85, 43, -33, 42, -28, -68, 1, -27, -47, -50, -57, -58, -63, -32, -25, -40, -53, -59, 62, 55, 51, 37, -50, 23, -52, -47, 
  14, 34, -46, -66, 37, 45, 0, -25, 82, 7, -30, 54, 31, 84, 8, -65, -9, -3, -19, -61, -11, 75, 31, -31, -5, -20, 13, 79, -7, 51, -34, 58, 1, -6, 48, 34, 62, -7, 10, -48, -42, 10, 10, 82, 53, 98, 36, 30, -26, 17, 14, -53, -35, 0, 30, -17, -52, -30, -12, -14, -74, 42, -45, 30, 15, 18, -22, -17, 6, 28, -42, 86, -11, -9, -14, 43, 19, -40, -26, 10, -49, 12, -22, -58, 24, -32, -30, 12, -51, -41, 53, 31, -25, 30, -12, 20, 21, -18, -6, 20, -8, 75, -3, 68, -30, 52, 34, 20, -45, 36, -13, 30, -31, -26, 9, -21, 65, 81, -20, -11, -32, 43, -8, 62, 15, 14, 31, -66, 31, -21, -19, -86, 47, 24, 48, 14, 42, 36, -24, 54, 2, 91, -87, 28, -67, 11, -78, -83, 44, 37, 55, 21, 39, 13, 22, -10, 85, 16, -15, -37, -106, -12, -11, -85, 119, 28, -49, 78, 71, 82, 35, -59, 89, 18, -58, -27, -103, -42, -58, -83, 85, 66, 64, 11, 60, 98, 59, -18, 44, 9, -67, 10, -32, 1, -69, -50, 81, 53, 79, 24, -3, 3, 78, 16, 42, 92, -18, 46, 
  16, -74, -3, 14, 45, -65, -4, 22, 53, 5, -48, -43, 9, -26, -71, -21, -63, 5, -34, -26, 20, -27, 56, -59, 33, 32, -34, -28, 50, 75, 22, -24, 50, -42, 43, -62, -25, 41, 53, -58, 29, -25, 9, -86, -19, 42, 16, 60, -16, -44, 71, 59, 1, 9, -27, -17, 12, 22, -9, -1, 42, -21, 60, -31, -12, 49, 50, 70, -5, -59, -18, -59, 51, -57, -44, -2, -53, 30, -43, -1, -27, 34, -32, 13, 48, -54, -49, 24, 67, -11, -78, 51, -55, 18, -29, 43, 71, -48, 39, -53, 49, -38, 17, -39, -2, 32, -71, 56, -2, -10, 77, 46, -38, -45, 5, -43, 29, 53, 40, 41, -34, -47, -43, -18, -30, -46, 77, 46, 57, 1, 38, -24, 46, -10, -46, 4, 49, -12, -30, -24, -91, 46, 69, -4, -9, 53, -25, 0, 100, -7, 19, -5, 6, 37, 25, -6, -101, -14, -9, 54, 30, -11, 81, 30, 96, 45, 32, 29, -1, 13, -74, 39, -63, -5, -8, 93, 79, 40, 53, -91, 83, 16, 36, 11, -43, -73, -77, 21, -21, -91, -11, 69, -17, 64, 48, -86, 58, -49, -105, 6, 32, -22, 14, 59, -65, 2, 23, -19, 
  -29, -68, -1, -25, -19, -18, -4, 31, -68, -74, 2, 12, 32, -71, 6, -10, -11, -34, -14, 36, -46, -66, 42, 5, -9, -10, 62, -66, -25, -103, 13, -8, 21, -62, 1, -33, -40, 51, -19, -19, 1, -10, 7, -41, 80, 17, 53, 56, 11, -11, -64, 18, -69, -6, 63, 29, -10, -14, 53, -89, 56, 64, -45, -18, 17, -65, 23, 49, 31, 71, 79, -42, 3, -10, 81, -24, 46, 51, 42, 45, 2, 67, 62, 13, -5, -21, 74, -55, -31, 26, 65, -37, 39, -35, 4, 32, 71, 39, 39, -48, 26, 73, 20, 26, -48, 20, 74, 14, 10, 67, -1, -25, -41, -15, -31, -39, -91, -52, 80, -40, -47, 44, 69, 44, 7, 48, -37, 11, 40, 26, -2, 16, -31, -41, 50, 47, 34, 52, 64, -10, -25, 24, -3, 36, 30, -22, 89, 11, -4, 38, 127, 22, -72, 58, 68, 41, 102, 30, -3, 21, -43, 111, 1, 87, 28, 57, 98, 5, 43, 84, 79, 123, -23, 59, -18, 55, -32, 32, 32, -36, 8, -24, 94, 62, 25, 88, -27, 112, 16, 124, -26, -60, 28, 31, 109, -69, -52, 46, 89, -10, -63, -28, -8, 13, 84, 86, -9, 36, 
  41, -48, -56, -17, -19, 45, -46, 11, 35, -37, -2, -7, -30, 54, 33, 32, 29, 7, 19, -61, -22, -4, 36, -58, -55, -56, 62, -56, -30, -34, -77, -67, -31, 63, -18, 33, -14, 57, 10, -32, -25, 61, 8, -53, -40, -27, 30, -24, 74, 67, 8, 13, -41, -28, 77, 9, -62, 34, -65, -37, 64, 35, 29, -31, 84, 59, -16, 19, 38, 32, 3, 8, -1, -80, 35, -53, 20, -16, 9, 84, 1, -49, 97, 51, 13, -28, 14, 29, 8, -42, -37, -5, 30, -41, -9, 35, 62, 68, -20, 6, 89, 22, 57, 54, -5, -33, 65, 1, -31, -7, 80, 77, -14, -8, 15, -11, -13, -54, 39, -46, -35, -44, 55, -62, 23, -90, 32, 105, -32, 11, -29, 43, 67, -5, -79, -55, 57, 64, 48, 2, -65, -93, -13, -17, -30, 7, -13, 43, 48, -13, -26, -53, -4, -25, 1, -89, -8, -102, 66, 26, -65, 50, -89, 38, 11, -14, 5, -33, -36, -30, 29, -50, -2, 6, -70, 36, -56, -48, -39, -19, 30, 26, 25, 27, -39, 48, 14, -10, -4, -84, -95, 38, -46, -41, -80, -57, -41, 10, 34, 6, 39, -11, 9, -38, -13, -3, -14, -20, 
  -6, -9, -55, -39, -32, -36, -26, 60, -12, -14, 30, 35, 19, 56, 20, -27, 0, 65, 44, -1, 54, 55, 24, 17, -27, -16, 31, 82, -56, 7, -14, -19, 13, 27, 69, 8, -34, 61, -24, -40, -47, -21, -5, -27, 48, 120, -61, 48, -48, 68, 28, -23, -48, 49, 68, 84, 63, -51, 47, 56, -60, 63, 4, 55, 72, 12, 92, -37, -44, 44, 32, 48, -35, -52, -46, 96, -9, 38, -41, -32, -6, 43, 44, -34, -9, -23, -11, 45, -43, 6, -7, 41, 50, 1, 36, 48, -37, -23, 9, -43, 39, 66, -53, -11, 29, 34, -49, 58, -10, 43, -64, -29, -27, 1, 30, 11, 73, 19, -26, -4, 25, 34, -65, 91, 18, -39, -21, -46, -30, 53, -61, -104, 40, 98, -105, -46, -34, -53, -38, 12, 39, 51, 4, -31, -22, -11, -55, -104, -8, -15, -109, -75, 42, 38, -3, -54, -48, -16, -81, -46, 14, -5, -33, 4, -2, 33, -55, 1, 42, -12, 90, -43, -43, 83, -81, -80, 19, -38, -41, -66, 9, 73, -66, 11, 72, 90, 64, -27, 90, -101, -72, 3, 17, 9, -79, 28, 27, -14, 27, -82, -42, -22, -50, 8, 0, 79, -45, 2, 
  86, -52, 56, 38, -61, -42, 50, -33, -32, 1, 7, 98, 44, -66, 69, 98, -44, 58, 0, 52, -37, 69, 27, -2, 24, 68, -39, 106, -30, -26, 45, 43, -60, 37, -5, 23, 17, 1, 0, 52, 65, 47, 64, 118, -67, -83, -13, 0, 1, -70, -70, 16, -63, 20, -51, 1, -68, -12, 16, -26, 15, -8, -68, -20, 33, -71, 39, -5, 1, 55, 8, 31, -12, 13, -1, -58, -3, 37, 1, -81, -16, 61, 20, -15, 53, -46, -8, 59, -42, 91, 85, -51, -13, -86, -50, -56, 49, -6, 3, -63, -79, 34, -45, -27, -7, 72, 30, 13, -2, 4, 17, -18, 43, 31, 66, 9, -69, -18, -42, 25, 48, 42, -15, 55, -13, 36, 13, -77, -49, 72, 14, -47, 21, 31, -22, -29, 37, -39, 55, 97, 2, 86, -16, -57, 43, 13, 12, 19, -32, -9, 1, 53, -56, -35, 60, -11, 53, 29, 22, -12, 7, 64, -9, 2, 7, 10, -18, -25, 8, 18, 72, 9, 85, 6, 15, -71, -24, -44, -4, -33, 23, 33, 51, 18, -48, 32, -25, 12, 63, -41, 41, -13, -56, 47, 66, -12, -18, -69, -22, 10, -31, -14, 9, -100, 66, -9, 44, 54, 
  -61, -16, 38, -1, 21, -5, -48, 16, 3, -84, -29, -56, 35, -35, 23, -18, 50, 2, 22, -38, -10, -67, -32, -18, 46, -59, -28, 28, -29, -18, 44, -74, -44, 29, 1, -8, 68, -37, 6, 73, -30, 25, 33, 66, -10, -30, -62, -76, 66, 15, -73, -27, 62, -56, -59, 12, 47, 12, 12, 14, 25, 18, -37, 39, -12, 16, -60, -59, 70, 34, 30, 50, 20, -11, -34, -40, 59, 55, -6, 4, -43, -40, 1, -4, 43, -41, 40, -10, 79, -9, -12, -12, 26, 53, 13, -36, 14, -72, 11, -5, -15, -75, 47, 4, -7, -4, 12, -18, 39, -15, 55, -89, 68, 34, 16, 11, 12, -17, -39, 26, 26, 64, 2, -88, -40, -18, 53, -22, -31, 49, -58, 60, -24, 4, 9, 7, 52, 57, -22, -65, 13, 14, 65, -88, 41, -73, -59, -29, 83, -27, 26, 48, 9, 42, 77, 7, -6, 31, 49, -77, 7, -76, 22, 36, -8, 56, 73, -16, 20, 50, 46, -14, -37, 81, 45, -3, 77, -44, 47, -21, 14, -23, 101, 47, -25, -3, 66, 31, -66, 57, 19, 56, -32, -58, -59, -22, 97, -22, -7, 15, 40, 45, -9, 5, 74, 29, -33, -14, 
  -40, 72, 15, 29, -56, 37, -84, -1, 69, 11, 29, -4, 33, -34, 59, -6, -9, 50, 39, 62, -34, 56, -2, 36, 13, -37, 7, 32, -49, 35, 28, 48, 43, 38, -66, 30, -36, 42, 19, -32, 28, 30, 58, 68, -88, 74, 60, -19, -30, -4, -9, -21, -48, -52, -49, -30, 35, -58, 52, 10, 61, 29, -15, -69, -49, 43, 27, -29, -8, 40, 2, -21, -23, -45, -37, -25, -25, 16, 3, -46, 67, -15, -3, -14, 11, 27, -17, 74, -21, 42, -67, -21, -60, -41, -33, 42, -6, -3, 25, 43, 0, 48, -51, 7, -26, -42, -22, -5, -22, 8, 3, -11, 49, 16, -8, -52, -69, 26, 7, 66, -73, -83, -68, 90, -13, 54, -67, -51, 48, -15, 10, -35, 16, 36, 18, 28, -35, 17, -94, 71, 34, 4, -5, 33, -35, 95, 24, 25, 8, 7, 9, -13, -72, -99, 18, 68, -33, 105, 41, 39, 43, -33, 23, -48, -16, -35, -22, -33, -12, -40, -15, -14, -61, -18, -27, 69, 69, 78, 67, 35, 21, -4, 31, 67, 23, -10, -88, 10, -23, -60, -63, -32, 82, 21, 15, 16, -67, -59, -36, 3, 27, -17, -49, 75, -72, 49, -74, 85, 
  -2, 45, -14, 52, -57, 40, 46, -49, -31, -6, -66, -28, 1, 16, -54, -56, 55, -41, 28, -48, -32, -68, -39, -35, -27, -58, 35, 51, -59, -20, 11, 2, 30, 1, 40, -29, -14, 52, 16, -41, 5, -25, -43, 46, 43, -21, -23, -44, 14, 26, 19, -47, -61, -26, -32, -47, -38, 5, 57, -59, -45, -57, 1, -1, -33, 23, -26, -34, 8, -55, 31, 43, 6, 0, 60, 54, 9, -3, 7, 51, 4, -28, 13, -67, 19, 42, -13, -65, -14, 5, 41, -39, 5, -32, -46, 54, -46, -68, -52, 45, -15, 64, 28, 20, -45, -31, -31, -62, -27, 15, 45, -20, -39, -36, 1, -10, -65, 31, 37, -14, 17, -63, 8, 2, -55, 40, 2, 0, -46, -56, 18, 39, -7, -16, 46, -13, -57, 22, -65, 33, 22, 7, 15, 47, -40, -17, -41, -4, -16, -44, 44, 50, -32, 6, -44, -7, 55, -35, 32, -60, 24, 11, 15, 44, -36, -46, 61, -32, 9, 11, -14, 39, -12, 13, 61, 40, -18, -10, -39, 32, -28, 27, -60, -42, -29, 37, 63, -1, -6, -64, 30, 48, 17, -29, -9, -35, -60, -50, -20, -63, -63, 22, 49, -67, -24, 34, -12, -38, 
  -13, 17, 18, -40, -9, 31, 82, -8, -42, 22, 14, -62, -19, 67, -60, 66, 17, 12, -8, -24, 23, 32, 79, -33, 46, -33, 17, 40, 44, 1, -27, 27, -51, 89, 49, 54, 22, -33, 3, 79, 45, 12, 45, -6, 0, 94, -59, -11, -39, 37, 9, 6, 44, -9, -30, -36, -64, -57, 42, 45, 60, 112, 17, -36, -5, 49, 67, -7, -27, 91, 27, 8, -57, 17, 74, -23, 95, 106, -27, 71, -18, 96, -27, -25, 59, 20, 61, 21, 23, 89, -18, -8, 79, 72, -48, 32, 13, 69, 54, 53, 9, 88, -22, 54, -78, 27, 70, -25, 74, -34, -68, -18, 54, 16, 14, 7, -51, 37, -47, -21, 6, 46, -64, 38, 85, -65, -6, 24, 43, -44, -51, 21, 12, 59, -14, -13, -56, -4, -5, 21, 34, -35, -2, 71, -74, -59, -45, 22, 41, -46, -59, -94, -44, 4, 15, 2, -21, -12, 26, -4, -3, -61, -39, -45, -70, -29, -7, -91, -92, -41, -56, -65, -12, -29, -27, -11, 17, -23, 26, 69, -85, 5, -66, -100, -70, 14, -50, -104, 98, -27, 45, -67, -7, 25, 12, 74, -94, -62, -95, -1, 42, -3, -91, -47, 54, -6, 32, -51, 
  -57, 7, 30, 39, 43, -77, 45, -64, -71, -12, 38, -35, 27, -71, 39, 44, 66, -54, -33, -17, 8, 22, -58, -49, -66, -9, -54, -25, 52, -71, 26, -46, -2, -43, -28, -37, 63, 27, 41, -9, -45, 18, 6, -37, 0, -54, 48, 20, -85, 34, 17, 34, -23, 30, -55, -58, 10, 58, -13, -21, 39, 29, -41, -54, -71, -69, 34, -34, 61, -22, 27, -26, -2, 78, 91, 20, 59, 10, -61, -75, 35, 13, 4, -45, -36, 12, 80, 16, 32, 82, 5, -66, 17, 25, 47, -47, -25, 13, 23, 40, -74, -19, 62, 34, -5, 37, 89, -4, -3, -95, -9, -66, 6, 44, 54, 54, -18, 42, 57, 4, -17, 82, 25, 5, 71, -7, 40, 21, -25, -40, -1, -5, 12, -4, -5, 58, -29, -36, 64, 38, -34, 15, 7, 18, 21, 52, 65, 116, 17, -62, 31, 7, 25, -48, 12, 34, 4, -60, 34, -2, -21, -13, -8, 108, -50, 58, 93, 33, 47, 76, 49, 54, 69, -66, 36, -9, 70, 41, -5, 95, -27, -2, 22, 73, -42, -29, 76, 7, -18, -6, -23, 39, 52, 55, 47, 40, 40, -58, 105, 32, 32, -8, 58, -14, -40, 26, -11, -27, 
  -32, 51, 60, 78, 73, -37, 2, 64, 53, 19, 53, 50, 11, -35, -52, -28, 0, 7, 6, 18, 84, -36, 6, -37, 55, 42, -6, 57, -12, 105, -29, 3, -5, -45, 0, 60, 96, 35, -40, -13, 16, 61, -71, 22, -69, 49, -44, -59, 51, 44, 14, -48, -12, -47, -56, -19, 49, -46, -9, 100, -17, 23, -4, 44, -28, 0, 12, -21, 82, 5, -85, 20, -6, -23, -58, 51, -55, -2, 2, 42, -36, 69, -45, -12, 10, -4, -96, 54, 90, 12, 21, 62, 15, -45, 75, -26, 43, 18, -33, -30, -62, 32, -67, -35, 91, -16, -53, -31, -14, 19, 48, -22, 0, 5, -53, 27, 19, -19, -56, 58, 22, -52, -66, 26, -22, 97, 50, 9, 30, -30, 60, -26, 61, -5, -60, 62, -27, -23, -30, 84, -74, 106, -25, 30, 6, -68, 45, -32, 37, -83, -90, 41, 35, -18, 39, 45, -20, 68, 53, -65, -46, -8, -48, -36, -51, -84, -14, 19, 28, -67, -65, -55, 34, 45, -15, 17, -44, -62, -13, 95, -2, -42, -65, -81, 93, -69, 24, 29, -13, -26, 14, -40, 28, -40, -57, 57, -47, 22, -83, 45, 7, -19, -60, -57, 3, -61, 22, 61, 
  25, -24, 19, 61, 57, 13, -67, -61, -47, -53, -56, 8, 40, 4, -63, -27, -37, 21, 56, -68, 42, 6, -56, -60, -67, -50, -28, -8, -42, -42, 20, -69, 26, -57, 15, 19, 3, 8, -34, -59, -26, -40, -6, 21, 11, -51, 45, 22, -58, -50, -67, -71, 1, 37, -61, 28, 30, 39, -16, 26, 40, -54, 57, -11, 5, 60, -33, -69, -73, 56, -56, 33, -44, -18, 2, -65, -33, 60, 47, 36, -73, -48, -57, -25, -28, 37, 34, 0, -72, 57, -58, -34, 32, -29, 13, -10, 24, 2, 14, -44, 46, -62, 38, -14, 48, -3, -43, 57, 18, -51, 61, 1, 39, 36, 26, -72, 42, -18, -8, -25, 53, -40, 31, -59, -10, -2, -13, -34, 48, -41, -54, -31, 10, -43, 62, -69, -29, -42, -39, -33, 13, 6, 27, 29, 30, 13, 54, 39, -57, 59, 57, 21, -1, 47, 16, 52, -59, 44, -18, -67, -66, -19, 19, -40, 25, 45, -63, 2, 50, 17, 54, 22, 4, 52, -22, 10, -36, 31, -65, -39, 3, -29, -23, -47, -66, 5, 16, -69, -20, -69, -41, 36, 46, 21, -33, 15, -61, -55, 43, 36, -43, 46, -54, 34, 4, 8, 46, -10, 
};
const TfArray<2, int> tensor_dimension9 = { 2, { 16,208 } };
const TfArray<1, float> quant9_scale = { 1, { 0.0024400295224040747, } };
const TfLiteAffineQuantization quant9 = { (TfLiteFloatArray*)&quant9_scale, (TfLiteIntArray*)&g0::quant6_zero, 0 };
const MODEL_SECTION(EI_MODEL_SECTION) ALIGN(16) int32_t tensor_data10[16] = { 124, 1300, 600, 1444, 1435, 1393, -231, -794, 200, 403, 471, 946, 1539, 2368, -241, 329, };
const TfArray<16, float> quant10_scale = { 16, { 6.3832376326899976e-05, 5.8882935263682157e-05, 6.9377470936160535e-05, 6.0929312894586474e-05, 6.5963016822934151e-05, 5.8710451412480325e-05, 6.2165308918338269e-05, 5.9979822253808379e-05, 6.5017418819479644e-05, 6.5231251937802881e-05, 6.42046143184416e-05, 6.9940047978889197e-05, 5.8624515077099204e-05, 7.3837953095789999e-05, 5.687036900781095e-05, 5.1573853852460161e-05, } };
const TfArray<16, int> quant10_zero = { 16, { 0,0,0,0,0,0,0,0,0,0,0,0,0,0,0,0 } };
const TfLiteAffineQuantization quant10 = { (TfLiteFloatArray*)&quant10_scale, (TfLiteIntArray*)&quant10_zero, 0 };
const MODEL_SECTION(EI_MODEL_SECTION) ALIGN(16) int8_t tensor_data11[16*1*3*16] = { 
  /* [0][0][][] */ 41,74,87,57,-14,28,28,17,32,54,33,-3,-79,-14,85,-86, 34,86,21,21,-66,-14,87,-4,43,77,127,85,51,-44,9,-89, -48,31,25,-10,-74,23,108,-91,18,102,124,51,109,74,27,-94, 
  /* [1][0][][] */ -58,113,-10,92,1,-66,-17,64,-37,10,-18,-10,59,102,50,127, 83,48,23,-89,-40,-51,7,6,47,73,87,-39,-110,-99,80,-21, 0,118,70,45,-16,52,43,-90,106,49,-6,-98,-24,77,-112,9, 
  /* [2][0][][] */ -4,65,-32,16,37,-2,46,39,127,37,108,67,47,-87,4,105, -50,72,48,-50,2,38,100,-4,118,92,-1,19,-68,18,88,82, -4,112,-3,-42,84,7,-34,-68,18,-57,125,17,73,16,-23,-25, 
  /* [3][0][][] */ 92,-38,72,-61,127,-30,-53,37,47,-91,27,104,29,-67,-57,18, -29,1,-15,-59,93,-43,77,24,84,-96,83,17,28,-83,-76,-13, 12,-26,-76,-44,-31,16,9,86,-80,-2,113,67,-10,-38,80,91, 
  /* [4][0][][] */ -12,-17,-42,-29,-65,-35,39,52,-37,12,-3,-34,13,80,53,16, 47,93,63,-32,-84,123,-17,32,-52,-14,3,37,85,79,97,-32, -10,127,-2,-9,-84,127,-65,36,-4,-7,32,45,120,6,78,14, 
  /* [5][0][][] */ -76,67,65,96,-12,-84,-56,127,-81,78,-50,-50,75,93,-62,9, -74,105,53,70,-1,11,-91,85,-38,109,-22,-41,48,-3,-35,-55, -111,30,3,76,49,56,58,96,51,115,-28,65,-107,63,15,34, 
  /* [6][0][][] */ 49,-12,16,87,-96,-18,35,53,38,-68,60,-127,-49,19,53,87, -51,-72,-93,93,-5,53,-34,-37,-29,-10,126,-62,-93,56,-24,-13, 98,19,-124,-89,65,100,73,37,73,104,123,-71,6,18,96,95, 
  /* [7][0][][] */ -10,99,4,-64,-96,117,107,80,77,109,78,115,28,86,89,106, 11,17,-52,20,75,50,101,66,22,125,0,-82,48,-34,97,99, -42,85,37,111,-61,106,62,79,-61,16,-5,8,-24,-67,-38,127, 
  /* [8][0][][] */ 78,-103,115,68,20,-7,71,67,-73,-48,-96,80,87,-15,-65,100, 4,-62,101,54,15,62,-23,-2,5,-74,64,21,-1,-88,94,-23, 14,47,36,8,15,91,-50,51,-123,-44,-93,33,29,61,127,64, 
  /* [9][0][][] */ 18,-86,30,113,-57,58,61,95,-44,-19,-40,-67,-5,87,-2,74, -23,-92,-47,123,-43,26,-40,127,-65,112,-97,-80,-64,118,6,104, -37,-98,75,-42,22,-10,-54,-15,-77,47,52,5,-28,88,53,-34, 
  /* [10][0][][] */ -89,-75,-62,63,-4,-57,31,19,-119,-52,-69,-39,-66,-47,-41,65, -73,-35,-54,83,-76,23,-49,127,-27,53,-56,55,6,82,85,101, 59,-117,47,-6,-26,-108,61,117,0,109,-76,-22,19,56,-49,-2, 
  /* [11][0][][] */ -71,71,-41,87,79,44,-29,-70,-9,-22,52,13,110,-92,10,52, -27,26,-104,67,-64,-59,-50,-37,114,95,69,-62,80,-65,45,-64, -56,39,-127,36,-51,-36,-39,-69,28,-24,-12,-13,-50,-21,49,-65, 
  /* [12][0][][] */ -85,55,-127,122,-4,-12,105,4,57,-25,-64,-46,-108,69,-96,-20, 81,64,43,43,78,-104,-38,80,-94,-87,-3,-19,18,65,25,51, 103,-8,-31,-15,66,-97,16,-11,-6,5,92,2,15,-45,11,97, 
  /* [13][0][][] */ -11,9,-29,-7,-91,73,-54,-10,62,74,-41,2,-82,-58,6,-12, -59,26,69,29,50,-44,-62,76,-9,44,-1,-69,47,-39,61,53, -53,31,-103,-43,-73,127,56,88,-36,-41,53,-66,48,2,76,92, 
  /* [14][0][][] */ 90,-3,102,-54,3,62,38,-80,-22,70,102,55,-16,-33,84,-90, 125,-127,45,80,50,-96,22,-107,82,-74,-24,-9,-115,71,34,-96, 121,57,72,17,92,0,118,6,-93,44,-55,-44,-21,0,-65,16, 
  /* [15][0][][] */ 112,114,25,-97,51,-13,-29,42,34,16,101,-3,45,-89,-6,5, -29,-51,119,-104,-71,4,46,33,92,-17,89,-50,54,117,-43,25, 1,-55,120,-28,-55,117,17,95,103,13,127,-89,111,91,-88,-78, 
};
const TfArray<4, int> tensor_dimension11 = { 4, { 16,1,3,16 } };
const TfArray<16, float> quant11_scale = { 16, { 0.002554402919486165, 0.0023563392460346222, 0.0027763028629124165, 0.0024382299743592739, 0.0026396655011922121, 0.0023494369816035032, 0.0024876913521438837, 0.0024002338759601116, 0.0026018251664936543, 0.0026103821583092213, 0.0025692989584058523, 0.0027988157235085964, 0.0023459980729967356, 0.0029547994490712881, 0.0022758017294108868, 0.0020638492424041033, } };
const TfLiteAffineQuantization quant11 = { (TfLiteFloatArray*)&quant11_scale, (TfLiteIntArray*)&g0::quant10_zero, 0 };
const MODEL_SECTION(EI_MODEL_SECTION) ALIGN(16) int32_t tensor_data12[16] = { 372, 774, 875, 400, 547, -202, 567, 951, 655, 570, 429, 201, 330, 456, 588, 463, };
const TfArray<16, float> quant12_scale = { 16, { 0.00014349578123074025, 0.00015675519534852356, 0.00011866912245750427, 0.00015906309999991208, 0.00011808121780632064, 0.00010627980373101309, 0.00011163683666381985, 0.00014373648446053267, 0.00014596918481402099, 0.00013803849287796766, 0.00015135719149839133, 0.00014044369163457304, 0.00015180130139924586, 0.00014778357581235468, 0.00014186358021106571, 0.00015164694923441857, } };
const TfLiteAffineQuantization quant12 = { (TfLiteFloatArray*)&quant12_scale, (TfLiteIntArray*)&g0::quant10_zero, 0 };
const MODEL_SECTION(EI_MODEL_SECTION) ALIGN(16) int8_t tensor_data13[16*1*3*3] = { 
  /* [0][0][][] */ 11,-21,-127, 83,-89,11, 110,-116,-29, 
  /* [1][0][][] */ -127,-5,-115, -114,10,-50, 38,111,-110, 
  /* [2][0][][] */ 121,-127,-107, 99,-90,75, 107,-96,105, 
  /* [3][0][][] */ -110,-13,113, 59,70,26, -36,11,127, 
  /* [4][0][][] */ 127,-33,-86, 25,-40,-103, 83,-49,-80, 
  /* [5][0][][] */ -89,-27,91, -127,-20,-35, -20,-50,-127, 
  /* [6][0][][] */ 79,-18,-70, -55,-127,-118, -45,12,-93, 
  /* [7][0][][] */ 55,63,116, -96,-20,127, 46,-24,23, 
  /* [8][0][][] */ 41,43,-63, -51,-13,-127, -86,49,-72, 
  /* [9][0][][] */ -127,83,112, 63,-6,-40, -118,35,-23, 
  /* [10][0][][] */ 103,-6,-127, 66,47,-122, -79,94,-107, 
  /* [11][0][][] */ -8,-127,-60, 12,-123,-79, 34,-32,40, 
  /* [12][0][][] */ -46,127,-8, 82,27,45, 66,118,-69, 
  /* [13][0][][] */ 19,42,55, 6,67,127, 53,4,66, 
  /* [14][0][][] */ 59,2,-12, -110,-127,28, -76,-60,108, 
  /* [15][0][][] */ -26,28,58, 35,-56,-61, -108,18,127, 
};
const TfArray<4, int> tensor_dimension13 = { 4, { 16,1,3,3 } };
const TfArray<16, float> quant13_scale = { 16, { 0.0030786886345595121, 0.0033631680998951197, 0.002546034986153245, 0.0034126839600503445, 0.0025334216188639402, 0.0022802234161645174, 0.0023951579350978136, 0.0030838530510663986, 0.0031317553948611021, 0.0029616032261401415, 0.0032473544124513865, 0.0030132064130157232, 0.0032568827737122774, 0.0031706830486655235, 0.0030436699744313955, 0.0032535712234675884, } };
const TfLiteAffineQuantization quant13 = { (TfLiteFloatArray*)&quant13_scale, (TfLiteIntArray*)&g0::quant10_zero, 0 };
const TfArray<4, int> tensor_dimension14 = { 4, { 1,1,50,3 } };
const TfArray<4, int> tensor_dimension15 = { 4, { 1,1,50,16 } };
const TfArray<1, float> quant15_scale = { 1, { 0.024989157915115356, } };
const TfArray<1, int> quant15_zero = { 1, { -128 } };
const TfLiteAffineQuantization quant15 = { (TfLiteFloatArray*)&quant15_scale, (TfLiteIntArray*)&quant15_zero, 0 };
const TfArray<4, int> tensor_dimension16 = { 4, { 1,50,1,16 } };
const TfArray<4, int> tensor_dimension17 = { 4, { 1,25,1,16 } };
const TfArray<4, int> tensor_dimension18 = { 4, { 1,1,25,16 } };
const TfArray<1, float> quant19_scale = { 1, { 0.041102893650531769, } };
const TfLiteAffineQuantization quant19 = { (TfLiteFloatArray*)&quant19_scale, (TfLiteIntArray*)&g0::quant15_zero, 0 };
const TfArray<4, int> tensor_dimension21 = { 4, { 1,13,1,16 } };
const TfArray<2, int> tensor_dimension22 = { 2, { 1,208 } };
const TfArray<2, int> tensor_dimension23 = { 2, { 1,16 } };
const TfArray<1, float> quant23_scale = { 1, { 0.060129061341285706, } };
const TfLiteAffineQuantization quant23 = { (TfLiteFloatArray*)&quant23_scale, (TfLiteIntArray*)&g0::quant15_zero, 0 };
const TfArray<2, int> tensor_dimension24 = { 2, { 1,6 } };
const TfArray<1, float> quant24_scale = { 1, { 0.11805355548858643, } };
const TfArray<1, int> quant24_zero = { 1, { 17 } };
const TfLiteAffineQuantization quant24 = { (TfLiteFloatArray*)&quant24_scale, (TfLiteIntArray*)&quant24_zero, 0 };
const TfArray<1, float> quant25_scale = { 1, { 0.00390625, } };
const TfLiteAffineQuantization quant25 = { (TfLiteFloatArray*)&quant25_scale, (TfLiteIntArray*)&g0::quant15_zero, 0 };
const TfLiteReshapeParams opdata0 = { { 0, 0, 0, 0, 0, 0, 0, 0, }, 0 };
const TfArray<2, int> inputs0 = { 2, { 0,1 } };
const TfArray<1, int> outputs0 = { 1, { 14 } };
const TfLiteConvParams opdata1 = { kTfLitePaddingSame, 1,1, kTfLiteActRelu, 1,1 };
const TfArray<3, int> inputs1 = { 3, { 14,13,12 } };
const TfArray<1, int> outputs1 = { 1, { 15 } };
const TfLiteReshapeParams opdata2 = { { 0, 0, 0, 0, 0, 0, 0, 0, }, 0 };
const TfArray<2, int> inputs2 = { 2, { 15,2 } };
const TfArray<1, int> outputs2 = { 1, { 16 } };
const TfLitePoolParams opdata3 = { kTfLitePaddingSame, 1,2, 1,2, kTfLiteActNone, { { 0,0, 0, 0 } } };
const TfArray<1, int> inputs3 = { 1, { 16 } };
const TfArray<1, int> outputs3 = { 1, { 17 } };
const TfLiteReshapeParams opdata4 = { { 0, 0, 0, 0, 0, 0, 0, 0, }, 0 };
const TfArray<2, int> inputs4 = { 2, { 17,3 } };
const TfArray<1, int> outputs4 = { 1, { 18 } };
const TfLiteConvParams opdata5 = { kTfLitePaddingSame, 1,1, kTfLiteActRelu, 1,1 };
const TfArray<3, int> inputs5 = { 3, { 18,11,10 } };
const TfArray<1, int> outputs5 = { 1, { 19 } };
const TfLiteReshapeParams opdata6 = { { 0, 0, 0, 0, 0, 0, 0, 0, }, 0 };
const TfArray<2, int> inputs6 = { 2, { 19,4 } };
const TfArray<1, int> outputs6 = { 1, { 20 } };
const TfLitePoolParams opdata7 = { kTfLitePaddingSame, 1,2, 1,2, kTfLiteActNone, { { 0,0, 0, 0 } } };
const TfArray<1, int> inputs7 = { 1, { 20 } };
const TfArray<1, int> outputs7 = { 1, { 21 } };
const TfLiteReshapeParams opdata8 = { { 0, 0, 0, 0, 0, 0, 0, 0, }, 0 };
const TfArray<2, int> inputs8 = { 2, { 21,5 } };
const TfArray<1, int> outputs8 = { 1, { 22 } };
const TfLiteFullyConnectedParams opdata9 = { kTfLiteActRelu, kTfLiteFullyConnectedWeightsFormatDefault, false, false };
const TfArray<3, int> inputs9 = { 3, { 22,9,8 } };
const TfArray<1, int> outputs9 = { 1, { 23 } };
const TfLiteFullyConnectedParams opdata10 = { kTfLiteActNone, kTfLiteFullyConnectedWeightsFormatDefault, false, false };
const TfArray<3, int> inputs10 = { 3, { 23,7,6 } };
const TfArray<1, int> outputs10 = { 1, { 24 } };
const TfLiteSoftmaxParams opdata11 = { 1 };
const TfArray<1, int> inputs11 = { 1, { 24 } };
const TfArray<1, int> outputs11 = { 1, { 25 } };
};

TensorInfo_t tensorData[] = {
{ kTfLiteArenaRw, kTfLiteInt8, (int32_t*)(tensor_arena + 160), (TfLiteIntArray*)&g0::tensor_dimension0, 150, {kTfLiteAffineQuantization, const_cast<void*>(static_cast<const void*>(&g0::quant0))}, },
{ kTfLiteMmapRo, kTfLiteInt32, (int32_t*)g0::tensor_data1, (TfLiteIntArray*)&g0::tensor_dimension1, 16, {kTfLiteNoQuantization, nullptr}, },
{ kTfLiteMmapRo, kTfLiteInt32, (int32_t*)g0::tensor_data2, (TfLiteIntArray*)&g0::tensor_dimension1, 16, {kTfLiteNoQuantization, nullptr}, },
{ kTfLiteMmapRo, kTfLiteInt32, (int32_t*)g0::tensor_data3, (TfLiteIntArray*)&g0::tensor_dimension1, 16, {kTfLiteNoQuantization, nullptr}, },
{ kTfLiteMmapRo, kTfLiteInt32, (int32_t*)g0::tensor_data4, (TfLiteIntArray*)&g0::tensor_dimension1, 16, {kTfLiteNoQuantization, nullptr}, },
{ kTfLiteMmapRo, kTfLiteInt32, (int32_t*)g0::tensor_data5, (TfLiteIntArray*)&g0::tensor_dimension5, 8, {kTfLiteNoQuantization, nullptr}, },
{ kTfLiteMmapRo, kTfLiteInt32, (int32_t*)g0::tensor_data6, (TfLiteIntArray*)&g0::tensor_dimension6, 24, {kTfLiteAffineQuantization, const_cast<void*>(static_cast<const void*>(&g0::quant6))}, },
{ kTfLiteMmapRo, kTfLiteInt8, (int32_t*)g0::tensor_data7, (TfLiteIntArray*)&g0::tensor_dimension7, 96, {kTfLiteAffineQuantization, const_cast<void*>(static_cast<const void*>(&g0::quant7))}, },
{ kTfLiteMmapRo, kTfLiteInt32, (int32_t*)g0::tensor_data8, (TfLiteIntArray*)&g0::tensor_dimension8, 64, {kTfLiteAffineQuantization, const_cast<void*>(static_cast<const void*>(&g0::quant8))}, },
{ kTfLiteMmapRo, kTfLiteInt8, (int32_t*)g0::tensor_data9, (TfLiteIntArray*)&g0::tensor_dimension9, 3328, {kTfLiteAffineQuantization, const_cast<void*>(static_cast<const void*>(&g0::quant9))}, },
{ kTfLiteMmapRo, kTfLiteInt32, (int32_t*)g0::tensor_data10, (TfLiteIntArray*)&g0::tensor_dimension8, 64, {kTfLiteAffineQuantization, const_cast<void*>(static_cast<const void*>(&g0::quant10))}, },
{ kTfLiteMmapRo, kTfLiteInt8, (int32_t*)g0::tensor_data11, (TfLiteIntArray*)&g0::tensor_dimension11, 768, {kTfLiteAffineQuantization, const_cast<void*>(static_cast<const void*>(&g0::quant11))}, },
{ kTfLiteMmapRo, kTfLiteInt32, (int32_t*)g0::tensor_data12, (TfLiteIntArray*)&g0::tensor_dimension8, 64, {kTfLiteAffineQuantization, const_cast<void*>(static_cast<const void*>(&g0::quant12))}, },
{ kTfLiteMmapRo, kTfLiteInt8, (int32_t*)g0::tensor_data13, (TfLiteIntArray*)&g0::tensor_dimension13, 144, {kTfLiteAffineQuantization, const_cast<void*>(static_cast<const void*>(&g0::quant13))}, },
{ kTfLiteArenaRw, kTfLiteInt8, (int32_t*)(tensor_arena + 0), (TfLiteIntArray*)&g0::tensor_dimension14, 150, {kTfLiteAffineQuantization, const_cast<void*>(static_cast<const void*>(&g0::quant0))}, },
{ kTfLiteArenaRw, kTfLiteInt8, (int32_t*)(tensor_arena + 800), (TfLiteIntArray*)&g0::tensor_dimension15, 800, {kTfLiteAffineQuantization, const_cast<void*>(static_cast<const void*>(&g0::quant15))}, },
{ kTfLiteArenaRw, kTfLiteInt8, (int32_t*)(tensor_arena + 0), (TfLiteIntArray*)&g0::tensor_dimension16, 800, {kTfLiteAffineQuantization, const_cast<void*>(static_cast<const void*>(&g0::quant15))}, },
{ kTfLiteArenaRw, kTfLiteInt8, (int32_t*)(tensor_arena + 800), (TfLiteIntArray*)&g0::tensor_dimension17, 400, {kTfLiteAffineQuantization, const_cast<void*>(static_cast<const void*>(&g0::quant15))}, },
{ kTfLiteArenaRw, kTfLiteInt8, (int32_t*)(tensor_arena + 0), (TfLiteIntArray*)&g0::tensor_dimension18, 400, {kTfLiteAffineQuantization, const_cast<void*>(static_cast<const void*>(&g0::quant15))}, },
{ kTfLiteArenaRw, kTfLiteInt8, (int32_t*)(tensor_arena + 400), (TfLiteIntArray*)&g0::tensor_dimension18, 400, {kTfLiteAffineQuantization, const_cast<void*>(static_cast<const void*>(&g0::quant19))}, },
{ kTfLiteArenaRw, kTfLiteInt8, (int32_t*)(tensor_arena + 0), (TfLiteIntArray*)&g0::tensor_dimension17, 400, {kTfLiteAffineQuantization, const_cast<void*>(static_cast<const void*>(&g0::quant19))}, },
{ kTfLiteArenaRw, kTfLiteInt8, (int32_t*)(tensor_arena + 400), (TfLiteIntArray*)&g0::tensor_dimension21, 208, {kTfLiteAffineQuantization, const_cast<void*>(static_cast<const void*>(&g0::quant19))}, },
{ kTfLiteArenaRw, kTfLiteInt8, (int32_t*)(tensor_arena + 0), (TfLiteIntArray*)&g0::tensor_dimension22, 208, {kTfLiteAffineQuantization, const_cast<void*>(static_cast<const void*>(&g0::quant19))}, },
{ kTfLiteArenaRw, kTfLiteInt8, (int32_t*)(tensor_arena + 208), (TfLiteIntArray*)&g0::tensor_dimension23, 16, {kTfLiteAffineQuantization, const_cast<void*>(static_cast<const void*>(&g0::quant23))}, },
{ kTfLiteArenaRw, kTfLiteInt8, (int32_t*)(tensor_arena + 16), (TfLiteIntArray*)&g0::tensor_dimension24, 6, {kTfLiteAffineQuantization, const_cast<void*>(static_cast<const void*>(&g0::quant24))}, },
{ kTfLiteArenaRw, kTfLiteInt8, (int32_t*)(tensor_arena + 0), (TfLiteIntArray*)&g0::tensor_dimension24, 6, {kTfLiteAffineQuantization, const_cast<void*>(static_cast<const void*>(&g0::quant25))}, },
};

#ifndef TF_LITE_STATIC_MEMORY
TfLiteNode tflNodes[12] = {
{ (TfLiteIntArray*)&g0::inputs0, (TfLiteIntArray*)&g0::outputs0, (TfLiteIntArray*)&g0::inputs0, nullptr, nullptr, const_cast<void*>(static_cast<const void*>(&g0::opdata0)), nullptr, 0, },
{ (TfLiteIntArray*)&g0::inputs1, (TfLiteIntArray*)&g0::outputs1, (TfLiteIntArray*)&g0::inputs1, nullptr, nullptr, const_cast<void*>(static_cast<const void*>(&g0::opdata1)), nullptr, 0, },
{ (TfLiteIntArray*)&g0::inputs2, (TfLiteIntArray*)&g0::outputs2, (TfLiteIntArray*)&g0::inputs2, nullptr, nullptr, const_cast<void*>(static_cast<const void*>(&g0::opdata2)), nullptr, 0, },
{ (TfLiteIntArray*)&g0::inputs3, (TfLiteIntArray*)&g0::outputs3, (TfLiteIntArray*)&g0::inputs3, nullptr, nullptr, const_cast<void*>(static_cast<const void*>(&g0::opdata3)), nullptr, 0, },
{ (TfLiteIntArray*)&g0::inputs4, (TfLiteIntArray*)&g0::outputs4, (TfLiteIntArray*)&g0::inputs4, nullptr, nullptr, const_cast<void*>(static_cast<const void*>(&g0::opdata4)), nullptr, 0, },
{ (TfLiteIntArray*)&g0::inputs5, (TfLiteIntArray*)&g0::outputs5, (TfLiteIntArray*)&g0::inputs5, nullptr, nullptr, const_cast<void*>(static_cast<const void*>(&g0::opdata5)), nullptr, 0, },
{ (TfLiteIntArray*)&g0::inputs6, (TfLiteIntArray*)&g0::outputs6, (TfLiteIntArray*)&g0::inputs6, nullptr, nullptr, const_cast<void*>(static_cast<const void*>(&g0::opdata6)), nullptr, 0, },
{ (TfLiteIntArray*)&g0::inputs7, (TfLiteIntArray*)&g0::outputs7, (TfLiteIntArray*)&g0::inputs7, nullptr, nullptr, const_cast<void*>(static_cast<const void*>(&g0::opdata7)), nullptr, 0, },
{ (TfLiteIntArray*)&g0::inputs8, (TfLiteIntArray*)&g0::outputs8, (TfLiteIntArray*)&g0::inputs8, nullptr, nullptr, const_cast<void*>(static_cast<const void*>(&g0::opdata8)), nullptr, 0, },
{ (TfLiteIntArray*)&g0::inputs9, (TfLiteIntArray*)&g0::outputs9, (TfLiteIntArray*)&g0::inputs9, nullptr, nullptr, const_cast<void*>(static_cast<const void*>(&g0::opdata9)), nullptr, 0, },
{ (TfLiteIntArray*)&g0::inputs10, (TfLiteIntArray*)&g0::outputs10, (TfLiteIntArray*)&g0::inputs10, nullptr, nullptr, const_cast<void*>(static_cast<const void*>(&g0::opdata10)), nullptr, 0, },
{ (TfLiteIntArray*)&g0::inputs11, (TfLiteIntArray*)&g0::outputs11, (TfLiteIntArray*)&g0::inputs11, nullptr, nullptr, const_cast<void*>(static_cast<const void*>(&g0::opdata11)), nullptr, 0, },
};
#else
TfLiteNode tflNodes[12] = {
{ (TfLiteIntArray*)&g0::inputs0, (TfLiteIntArray*)&g0::outputs0, (TfLiteIntArray*)&g0::inputs0, nullptr, const_cast<void*>(static_cast<const void*>(&g0::opdata0)), nullptr, 0, },
{ (TfLiteIntArray*)&g0::inputs1, (TfLiteIntArray*)&g0::outputs1, (TfLiteIntArray*)&g0::inputs1, nullptr, const_cast<void*>(static_cast<const void*>(&g0::opdata1)), nullptr, 0, },
{ (TfLiteIntArray*)&g0::inputs2, (TfLiteIntArray*)&g0::outputs2, (TfLiteIntArray*)&g0::inputs2, nullptr, const_cast<void*>(static_cast<const void*>(&g0::opdata2)), nullptr, 0, },
{ (TfLiteIntArray*)&g0::inputs3, (TfLiteIntArray*)&g0::outputs3, (TfLiteIntArray*)&g0::inputs3, nullptr, const_cast<void*>(static_cast<const void*>(&g0::opdata3)), nullptr, 0, },
{ (TfLiteIntArray*)&g0::inputs4, (TfLiteIntArray*)&g0::outputs4, (TfLiteIntArray*)&g0::inputs4, nullptr, const_cast<void*>(static_cast<const void*>(&g0::opdata4)), nullptr, 0, },
{ (TfLiteIntArray*)&g0::inputs5, (TfLiteIntArray*)&g0::outputs5, (TfLiteIntArray*)&g0::inputs5, nullptr, const_cast<void*>(static_cast<const void*>(&g0::opdata5)), nullptr, 0, },
{ (TfLiteIntArray*)&g0::inputs6, (TfLiteIntArray*)&g0::outputs6, (TfLiteIntArray*)&g0::inputs6, nullptr, const_cast<void*>(static_cast<const void*>(&g0::opdata6)), nullptr, 0, },
{ (TfLiteIntArray*)&g0::inputs7, (TfLiteIntArray*)&g0::outputs7, (TfLiteIntArray*)&g0::inputs7, nullptr, const_cast<void*>(static_cast<const void*>(&g0::opdata7)), nullptr, 0, },
{ (TfLiteIntArray*)&g0::inputs8, (TfLiteIntArray*)&g0::outputs8, (TfLiteIntArray*)&g0::inputs8, nullptr, const_cast<void*>(static_cast<const void*>(&g0::opdata8)), nullptr, 0, },
{ (TfLiteIntArray*)&g0::inputs9, (TfLiteIntArray*)&g0::outputs9, (TfLiteIntArray*)&g0::inputs9, nullptr, const_cast<void*>(static_cast<const void*>(&g0::opdata9)), nullptr, 0, },
{ (TfLiteIntArray*)&g0::inputs10, (TfLiteIntArray*)&g0::outputs10, (TfLiteIntArray*)&g0::inputs10, nullptr, const_cast<void*>(static_cast<const void*>(&g0::opdata10)), nullptr, 0, },
{ (TfLiteIntArray*)&g0::inputs11, (TfLiteIntArray*)&g0::outputs11, (TfLiteIntArray*)&g0::inputs11, nullptr, const_cast<void*>(static_cast<const void*>(&g0::opdata11)), nullptr, 0, },
};
#endif

used_operators_e used_ops[] =
{OP_RESHAPE, OP_CONV_2D, OP_RESHAPE, OP_MAX_POOL_2D, OP_RESHAPE, OP_CONV_2D, OP_RESHAPE, OP_MAX_POOL_2D, OP_RESHAPE, OP_FULLY_CONNECTED, OP_FULLY_CONNECTED, OP_SOFTMAX, };


// Indices into tflTensors and tflNodes for subgraphs
const size_t tflTensors_subgraph_index[] = {0, 26, };
const size_t tflNodes_subgraph_index[] = {0, 12, };

// Input/output tensors
static const int in_tensor_indices[] = {
  0, 
};

static const int out_tensor_indices[] = {
  25, 
};


size_t current_subgraph_index = 0;

static void init_tflite_tensor(size_t i, TfLiteTensor *tensor) {
  tensor->type = tensorData[i].type;
  tensor->is_variable = false;

#if defined(EI_CLASSIFIER_ALLOCATION_HEAP)
  tensor->allocation_type = tensorData[i].allocation_type;
#else
  tensor->allocation_type = (tensor_arena <= tensorData[i].data && tensorData[i].data < tensor_arena + kTensorArenaSize) ? kTfLiteArenaRw : kTfLiteMmapRo;
#endif
  tensor->bytes = tensorData[i].bytes;
  tensor->dims = tensorData[i].dims;

#if defined(EI_CLASSIFIER_ALLOCATION_HEAP)
  if(tensor->allocation_type == kTfLiteArenaRw){
    uint8_t* start = (uint8_t*) ((uintptr_t)tensorData[i].data + (uintptr_t) tensor_arena);

    tensor->data.data =  start;
  }
  else {
      tensor->data.data = tensorData[i].data;
  }
#else
  tensor->data.data = tensorData[i].data;
#endif // EI_CLASSIFIER_ALLOCATION_HEAP
  tensor->quantization = tensorData[i].quantization;
  if (tensor->quantization.type == kTfLiteAffineQuantization) {
    TfLiteAffineQuantization const* quant = ((TfLiteAffineQuantization const*)(tensorData[i].quantization.params));
    tensor->params.scale = quant->scale->data[0];
    tensor->params.zero_point = quant->zero_point->data[0];
  }

}

static void init_tflite_eval_tensor(int i, TfLiteEvalTensor *tensor) {

  tensor->type = tensorData[i].type;

  tensor->dims = tensorData[i].dims;

#if defined(EI_CLASSIFIER_ALLOCATION_HEAP)
  auto allocation_type = tensorData[i].allocation_type;
  if(allocation_type == kTfLiteArenaRw) {
    uint8_t* start = (uint8_t*) ((uintptr_t)tensorData[i].data + (uintptr_t) tensor_arena);

    tensor->data.data =  start;
  }
  else {
    tensor->data.data = tensorData[i].data;
  }
#else
  tensor->data.data = tensorData[i].data;
#endif // EI_CLASSIFIER_ALLOCATION_HEAP
}

static void* overflow_buffers[EI_MAX_OVERFLOW_BUFFER_COUNT];
static size_t overflow_buffers_ix = 0;
static void * AllocatePersistentBufferImpl(struct TfLiteContext* ctx,
                                       size_t bytes) {
  void *ptr;
  uint32_t align_bytes = (bytes % 16) ? 16 - (bytes % 16) : 0;

  if (current_location - (bytes + align_bytes) < tensor_boundary) {
    if (overflow_buffers_ix > EI_MAX_OVERFLOW_BUFFER_COUNT - 1) {
      ei_printf("ERR: Failed to allocate persistent buffer of size %d, does not fit in tensor arena and reached EI_MAX_OVERFLOW_BUFFER_COUNT\n",
        (int)bytes);
      return NULL;
    }

    // OK, this will look super weird, but.... we have CMSIS-NN buffers which
    // we cannot calculate beforehand easily.
    ptr = ei_calloc(bytes, 1);
    if (ptr == NULL) {
      ei_printf("ERR: Failed to allocate persistent buffer of size %d\n", (int)bytes);
      return NULL;
    }
    overflow_buffers[overflow_buffers_ix++] = ptr;
    return ptr;
  }

  current_location -= bytes;

  // align to the left aligned boundary of 16 bytes
  current_location -= 15; // for alignment
  current_location += 16 - ((uintptr_t)(current_location) & 15);

  ptr = current_location;
  memset(ptr, 0, bytes);

  return ptr;
}

typedef struct {
  size_t bytes;
  void *ptr;
} scratch_buffer_t;

static scratch_buffer_t scratch_buffers[EI_MAX_SCRATCH_BUFFER_COUNT];
static size_t scratch_buffers_ix = 0;

static TfLiteStatus RequestScratchBufferInArenaImpl(struct TfLiteContext* ctx, size_t bytes,
                                                int* buffer_idx) {
  if (scratch_buffers_ix > EI_MAX_SCRATCH_BUFFER_COUNT - 1) {
    ei_printf("ERR: Failed to allocate scratch buffer of size %d, reached EI_MAX_SCRATCH_BUFFER_COUNT\n",
      (int)bytes);
    return kTfLiteError;
  }

  scratch_buffer_t b;
  b.bytes = bytes;

  b.ptr = AllocatePersistentBufferImpl(ctx, b.bytes);
  if (!b.ptr) {
    ei_printf("ERR: Failed to allocate scratch buffer of size %d\n",
      (int)bytes);
    return kTfLiteError;
  }

  scratch_buffers[scratch_buffers_ix] = b;
  *buffer_idx = scratch_buffers_ix;

  scratch_buffers_ix++;

  return kTfLiteOk;
}

static void* GetScratchBufferImpl(struct TfLiteContext* ctx, int buffer_idx) {
  if (buffer_idx > (int)scratch_buffers_ix) {
    return NULL;
  }
  return scratch_buffers[buffer_idx].ptr;
}

static const uint16_t TENSOR_IX_UNUSED = 0x7FFF;

static void ResetTensors() {
  for (size_t ix = 0; ix < MAX_TFL_TENSOR_COUNT; ix++) {
    tflTensors[ix].index = TENSOR_IX_UNUSED;
  }
  for (size_t ix = 0; ix < MAX_TFL_EVAL_COUNT; ix++) {
    tflEvalTensors[ix].index = TENSOR_IX_UNUSED;
  }
}

static TfLiteTensor* GetTensorImpl(const struct TfLiteContext* context,
                               int tensor_idx) {

  tensor_idx = tflTensors_subgraph_index[current_subgraph_index] + tensor_idx;

  for (size_t ix = 0; ix < MAX_TFL_TENSOR_COUNT; ix++) {
    // already used? OK!
    if (tflTensors[ix].index == tensor_idx) {
      return &tflTensors[ix].tensor;
    }
    // passed all the ones we've used, so end of the list?
    if (tflTensors[ix].index == TENSOR_IX_UNUSED) {
      // init the tensor
      init_tflite_tensor(tensor_idx, &tflTensors[ix].tensor);
      tflTensors[ix].index = tensor_idx;
      return &tflTensors[ix].tensor;
    }
  }

  ei_printf("ERR: GetTensor called beyond MAX_TFL_TENSOR_COUNT (%d)\n", MAX_TFL_TENSOR_COUNT);
  return nullptr;
}

static TfLiteEvalTensor* GetEvalTensorImpl(const struct TfLiteContext* context,
                                       int tensor_idx) {

  tensor_idx = tflTensors_subgraph_index[current_subgraph_index] + tensor_idx;

  for (size_t ix = 0; ix < MAX_TFL_EVAL_COUNT; ix++) {
    // already used? OK!
    if (tflEvalTensors[ix].index == tensor_idx) {
      return &tflEvalTensors[ix].tensor;
    }
    // passed all the ones we've used, so end of the list?
    if (tflEvalTensors[ix].index == TENSOR_IX_UNUSED) {
      // init the tensor
      init_tflite_eval_tensor(tensor_idx, &tflEvalTensors[ix].tensor);
      tflEvalTensors[ix].index = tensor_idx;
      return &tflEvalTensors[ix].tensor;
    }
  }

  ei_printf("ERR: GetTensor called beyond MAX_TFL_EVAL_COUNT (%d)\n", (int)MAX_TFL_EVAL_COUNT);
  return nullptr;
}

class EonMicroContext : public MicroContext {
 public:
 
  EonMicroContext(): MicroContext(nullptr, nullptr, nullptr) { }

  void* AllocatePersistentBuffer(size_t bytes) {
    return AllocatePersistentBufferImpl(nullptr, bytes);
  }

  TfLiteStatus RequestScratchBufferInArena(size_t bytes,
                                           int* buffer_index) {
  return RequestScratchBufferInArenaImpl(nullptr, bytes, buffer_index);
  }

  void* GetScratchBuffer(int buffer_index) {
    return GetScratchBufferImpl(nullptr, buffer_index);
  }
 
  TfLiteTensor* AllocateTempTfLiteTensor(int tensor_index) {
    return GetTensorImpl(nullptr, tensor_index);
  }

  void DeallocateTempTfLiteTensor(TfLiteTensor* tensor) {
    return;
  }

  bool IsAllTempTfLiteTensorDeallocated() {
    return true;
  }

  TfLiteEvalTensor* GetEvalTensor(int tensor_index) {
    return GetEvalTensorImpl(nullptr, tensor_index);
  }

};


} // namespace

TfLiteStatus tflite_learn_931007_4_init( void*(*alloc_fnc)(size_t,size_t) ) {
#ifdef EI_CLASSIFIER_ALLOCATION_HEAP
  tensor_arena = (uint8_t*) alloc_fnc(16, kTensorArenaSize);
  if (!tensor_arena) {
    ei_printf("ERR: failed to allocate tensor arena\n");
    return kTfLiteError;
  }
#else
  memset(tensor_arena, 0, kTensorArenaSize);
#endif
  tensor_boundary = tensor_arena;
  current_location = tensor_arena + kTensorArenaSize;

  EonMicroContext micro_context_;
  
  // Set microcontext as the context ptr
  ctx.impl_ = static_cast<void*>(&micro_context_);
  // Setup tflitecontext functions
  ctx.AllocatePersistentBuffer = &AllocatePersistentBufferImpl;
  ctx.RequestScratchBufferInArena = &RequestScratchBufferInArenaImpl;
  ctx.GetScratchBuffer = &GetScratchBufferImpl;
  ctx.GetTensor = &GetTensorImpl;
  ctx.GetEvalTensor = &GetEvalTensorImpl;
  ctx.ReportError = &MicroContextReportOpError;

  ctx.tensors_size = 26;
  for (size_t i = 0; i < 26; ++i) {
    TfLiteTensor tensor;
    init_tflite_tensor(i, &tensor);
    if (tensor.allocation_type == kTfLiteArenaRw) {
      auto data_end_ptr = (uint8_t*)tensor.data.data + tensorData[i].bytes;
      if (data_end_ptr > tensor_boundary) {
        tensor_boundary = data_end_ptr;
      }
    }
  }

  if (tensor_boundary > current_location /* end of arena size */) {
    ei_printf("ERR: tensor arena is too small, does not fit model - even without scratch buffers\n");
    return kTfLiteError;
  }

  registrations[OP_RESHAPE] = Register_RESHAPE();
  registrations[OP_CONV_2D] = Register_CONV_2D();
  registrations[OP_MAX_POOL_2D] = Register_MAX_POOL_2D();
  registrations[OP_FULLY_CONNECTED] = Register_FULLY_CONNECTED();
  registrations[OP_SOFTMAX] = Register_SOFTMAX();

  for (size_t g = 0; g < 1; ++g) {
    current_subgraph_index = g;
    for(size_t i = tflNodes_subgraph_index[g]; i < tflNodes_subgraph_index[g+1]; ++i) {
      if (registrations[used_ops[i]].init) {
        tflNodes[i].user_data = registrations[used_ops[i]].init(&ctx, (const char*)tflNodes[i].builtin_data, 0);
      }
    }
  }
  current_subgraph_index = 0;

  for(size_t g = 0; g < 1; ++g) {
    current_subgraph_index = g;
    for(size_t i = tflNodes_subgraph_index[g]; i < tflNodes_subgraph_index[g+1]; ++i) {
      if (registrations[used_ops[i]].prepare) {
        ResetTensors();
        TfLiteStatus status = registrations[used_ops[i]].prepare(&ctx, &tflNodes[i]);
        if (status != kTfLiteOk) {
          return status;
        }
      }
    }
  }
  current_subgraph_index = 0;

  return kTfLiteOk;
}

TfLiteStatus tflite_learn_931007_4_input(int index, TfLiteTensor *tensor) {
  init_tflite_tensor(in_tensor_indices[index], tensor);
  return kTfLiteOk;
}

TfLiteStatus tflite_learn_931007_4_output(int index, TfLiteTensor *tensor) {
  init_tflite_tensor(out_tensor_indices[index], tensor);
  return kTfLiteOk;
}

TfLiteStatus tflite_learn_931007_4_invoke() {
  for (size_t i = 0; i < 12; ++i) {
    ResetTensors();

    TfLiteStatus status = registrations[used_ops[i]].invoke(&ctx, &tflNodes[i]);

#if EI_CLASSIFIER_PRINT_STATE
    ei_printf("layer %lu\n", i);
    ei_printf("    inputs:\n");
    for (size_t ix = 0; ix < tflNodes[i].inputs->size; ix++) {
      auto d = tensorData[tflNodes[i].inputs->data[ix]];

      size_t data_ptr = (size_t)d.data;

      if (d.allocation_type == kTfLiteArenaRw) {
        data_ptr = (size_t)tensor_arena + data_ptr;
      }

      if (d.type == TfLiteType::kTfLiteInt8) {
        int8_t* data = (int8_t*)data_ptr;
        ei_printf("        %lu (%zu bytes, ptr=%p, alloc_type=%d, type=%d): ", ix, d.bytes, data, (int)d.allocation_type, (int)d.type);
        for (size_t jx = 0; jx < d.bytes; jx++) {
          ei_printf("%d ", data[jx]);
        }
      }
      else {
        float* data = (float*)data_ptr;
        ei_printf("        %lu (%zu bytes, ptr=%p, alloc_type=%d, type=%d): ", ix, d.bytes, data, (int)d.allocation_type, (int)d.type);
        for (size_t jx = 0; jx < d.bytes / 4; jx++) {
          ei_printf("%f ", data[jx]);
        }
      }
      ei_printf("\n");
    }
    ei_printf("\n");

    ei_printf("    outputs:\n");
    for (size_t ix = 0; ix < tflNodes[i].outputs->size; ix++) {
      auto d = tensorData[tflNodes[i].outputs->data[ix]];

      size_t data_ptr = (size_t)d.data;

      if (d.allocation_type == kTfLiteArenaRw) {
        data_ptr = (size_t)tensor_arena + data_ptr;
      }

      if (d.type == TfLiteType::kTfLiteInt8) {
        int8_t* data = (int8_t*)data_ptr;
        ei_printf("        %lu (%zu bytes, ptr=%p, alloc_type=%d, type=%d): ", ix, d.bytes, data, (int)d.allocation_type, (int)d.type);
        for (size_t jx = 0; jx < d.bytes; jx++) {
          ei_printf("%d ", data[jx]);
        }
      }
      else {
        float* data = (float*)data_ptr;
        ei_printf("        %lu (%zu bytes, ptr=%p, alloc_type=%d, type=%d): ", ix, d.bytes, data, (int)d.allocation_type, (int)d.type);
        for (size_t jx = 0; jx < d.bytes / 4; jx++) {
          ei_printf("%f ", data[jx]);
        }
      }
      ei_printf("\n");
    }
    ei_printf("\n");
#endif // EI_CLASSIFIER_PRINT_STATE

    if (status != kTfLiteOk) {
      return status;
    }
  }
  return kTfLiteOk;
}

TfLiteStatus tflite_learn_931007_4_reset( void (*free_fnc)(void* ptr) ) {
#ifdef EI_CLASSIFIER_ALLOCATION_HEAP
  free_fnc(tensor_arena);
#endif

  // scratch buffers are allocated within the arena, so just reset the counter so memory can be reused
  scratch_buffers_ix = 0;

  // overflow buffers are on the heap, so free them first
  for (size_t ix = 0; ix < overflow_buffers_ix; ix++) {
    ei_free(overflow_buffers[ix]);
  }
  overflow_buffers_ix = 0;
  return kTfLiteOk;
}
